<?xml version="1.0"?>
<opencv_storage>
<cascade>
  <stageType>BOOST</stageType>
  <featureType>HAAR</featureType>
  <height>40</height>
  <width>30</width>
  <stageParams>
    <boostType>GAB</boostType>
    <minHitRate>9.9900001287460327e-01</minHitRate>
    <maxFalseAlarm>5.0000000000000000e-01</maxFalseAlarm>
    <weightTrimRate>9.4999999999999996e-01</weightTrimRate>
    <maxDepth>1</maxDepth>
    <maxWeakCount>100</maxWeakCount></stageParams>
  <featureParams>
    <maxCatCount>0</maxCatCount>
    <featSize>1</featSize>
    <mode>BASIC</mode></featureParams>
  <stageNum>10</stageNum>
  <stages>
    <!-- stage 0 -->
    <_>
      <maxWeakCount>3</maxWeakCount>
      <stageThreshold>-1.2362897396087646e+00</stageThreshold>
      <weakClassifiers>
        <_>
          <internalNodes>
            0 -1 30 7.1442965418100357e-03</internalNodes>
          <leafValues>
            -9.8481398820877075e-01 7.2661870718002319e-01</leafValues></_>
        <_>
          <internalNodes>
            0 -1 5 -3.7409360520541668e-03</internalNodes>
          <leafValues>
            6.9429445266723633e-01 -9.8487561941146851e-01</leafValues></_>
        <_>
          <internalNodes>
            0 -1 2 -6.0342680662870407e-02</internalNodes>
          <leafValues>
            7.9174393415451050e-01 -9.4577026367187500e-01</leafValues></_></weakClassifiers></_>
    <!-- stage 1 -->
    <_>
      <maxWeakCount>3</maxWeakCount>
      <stageThreshold>-1.4492624998092651e+00</stageThreshold>
      <weakClassifiers>
        <_>
          <internalNodes>
            0 -1 12 -1.1422658339142799e-02</internalNodes>
          <leafValues>
            -9.8344618082046509e-01 7.9699248075485229e-01</leafValues></_>
        <_>
          <internalNodes>
            0 -1 6 -2.7712540701031685e-02</internalNodes>
          <leafValues>
            -9.7056752443313599e-01 4.9300950765609741e-01</leafValues></_>
        <_>
          <internalNodes>
            0 -1 27 3.8073740142863244e-05</internalNodes>
          <leafValues>
            -9.5882576704025269e-01 5.1739412546157837e-01</leafValues></_></weakClassifiers></_>
    <!-- stage 2 -->
    <_>
      <maxWeakCount>3</maxWeakCount>
      <stageThreshold>-1.4656028747558594e+00</stageThreshold>
      <weakClassifiers>
        <_>
          <internalNodes>
            0 -1 26 2.1633801516145468e-03</internalNodes>
          <leafValues>
            -9.6186119318008423e-01 5.8450704813003540e-01</leafValues></_>
        <_>
          <internalNodes>
            0 -1 10 -9.7354808822274208e-03</internalNodes>
          <leafValues>
            6.0699552297592163e-01 -9.3612182140350342e-01</leafValues></_>
        <_>
          <internalNodes>
            0 -1 7 -1.9345216453075409e-02</internalNodes>
          <leafValues>
            -1. 4.3238005042076111e-01</leafValues></_></weakClassifiers></_>
    <!-- stage 3 -->
    <_>
      <maxWeakCount>4</maxWeakCount>
      <stageThreshold>-2.0049328804016113e+00</stageThreshold>
      <weakClassifiers>
        <_>
          <internalNodes>
            0 -1 9 1.4754255115985870e-01</internalNodes>
          <leafValues>
            -9.0469413995742798e-01 9.3650794029235840e-01</leafValues></_>
        <_>
          <internalNodes>
            0 -1 29 1.7331507988274097e-03</internalNodes>
          <leafValues>
            -8.4880113601684570e-01 9.0017253160476685e-01</leafValues></_>
        <_>
          <internalNodes>
            0 -1 18 -3.0608076602220535e-02</internalNodes>
          <leafValues>
            6.3216823339462280e-01 -8.9415651559829712e-01</leafValues></_>
        <_>
          <internalNodes>
            0 -1 13 -5.4629512305837125e-05</internalNodes>
          <leafValues>
            6.4271885156631470e-01 -8.7381172180175781e-01</leafValues></_></weakClassifiers></_>
    <!-- stage 4 -->
    <_>
      <maxWeakCount>3</maxWeakCount>
      <stageThreshold>-1.4036836624145508e+00</stageThreshold>
      <weakClassifiers>
        <_>
          <internalNodes>
            0 -1 19 -9.8454803228378296e-03</internalNodes>
          <leafValues>
            -9.8483699560165405e-01 7.3913043737411499e-01</leafValues></_>
        <_>
          <internalNodes>
            0 -1 17 7.5465425848960876e-02</internalNodes>
          <leafValues>
            -9.3741804361343384e-01 5.9427660703659058e-01</leafValues></_>
        <_>
          <internalNodes>
            0 -1 20 -4.2666364461183548e-03</internalNodes>
          <leafValues>
            -9.8502111434936523e-01 5.1857131719589233e-01</leafValues></_></weakClassifiers></_>
    <!-- stage 5 -->
    <_>
      <maxWeakCount>3</maxWeakCount>
      <stageThreshold>-1.3544489145278931e+00</stageThreshold>
      <weakClassifiers>
        <_>
          <internalNodes>
            0 -1 14 1.8159311730414629e-03</internalNodes>
          <leafValues>
            -9.5993834733963013e-01 5.0841748714447021e-01</leafValues></_>
        <_>
          <internalNodes>
            0 -1 11 -3.2811448909342289e-03</internalNodes>
          <leafValues>
            -8.2204353809356689e-01 7.6949852705001831e-01</leafValues></_>
        <_>
          <internalNodes>
            0 -1 4 -4.8782289959490299e-03</internalNodes>
          <leafValues>
            4.2753294110298157e-01 -1.</leafValues></_></weakClassifiers></_>
    <!-- stage 6 -->
    <_>
      <maxWeakCount>4</maxWeakCount>
      <stageThreshold>-2.2320878505706787e+00</stageThreshold>
      <weakClassifiers>
        <_>
          <internalNodes>
            0 -1 15 2.7926057577133179e-02</internalNodes>
          <leafValues>
            -9.0442228317260742e-01 8.9637303352355957e-01</leafValues></_>
        <_>
          <internalNodes>
            0 -1 0 -6.6931709647178650e-02</internalNodes>
          <leafValues>
            6.8810409307479858e-01 -9.5383429527282715e-01</leafValues></_>
        <_>
          <internalNodes>
            0 -1 24 3.7272248882800341e-03</internalNodes>
          <leafValues>
            -8.4224468469619751e-01 5.7321107387542725e-01</leafValues></_>
        <_>
          <internalNodes>
            0 -1 28 2.5634957477450371e-02</internalNodes>
          <leafValues>
            -9.4704246520996094e-01 5.3388023376464844e-01</leafValues></_></weakClassifiers></_>
    <!-- stage 7 -->
    <_>
      <maxWeakCount>4</maxWeakCount>
      <stageThreshold>-1.9309928417205811e+00</stageThreshold>
      <weakClassifiers>
        <_>
          <internalNodes>
            0 -1 16 -5.0362266600131989e-02</internalNodes>
          <leafValues>
            8.1188118457794189e-01 -9.0380471944808960e-01</leafValues></_>
        <_>
          <internalNodes>
            0 -1 1 -8.1087037920951843e-02</internalNodes>
          <leafValues>
            6.2088078260421753e-01 -8.9775633811950684e-01</leafValues></_>
        <_>
          <internalNodes>
            0 -1 23 -3.4747784957289696e-03</internalNodes>
          <leafValues>
            9.5842111110687256e-01 -6.4612627029418945e-01</leafValues></_>
        <_>
          <internalNodes>
            0 -1 21 -4.4799290597438812e-02</internalNodes>
          <leafValues>
            5.1669442653656006e-01 -1.</leafValues></_></weakClassifiers></_>
    <!-- stage 8 -->
    <_>
      <maxWeakCount>3</maxWeakCount>
      <stageThreshold>-1.4284374713897705e+00</stageThreshold>
      <weakClassifiers>
        <_>
          <internalNodes>
            0 -1 22 2.1278074011206627e-02</internalNodes>
          <leafValues>
            -9.0180504322052002e-01 7.3333334922790527e-01</leafValues></_>
        <_>
          <internalNodes>
            0 -1 25 -2.0682107657194138e-02</internalNodes>
          <leafValues>
            5.8549255132675171e-01 -9.3367636203765869e-01</leafValues></_>
        <_>
          <internalNodes>
            0 -1 3 -1.4551520347595215e-02</internalNodes>
          <leafValues>
            4.0704390406608582e-01 -9.0172398090362549e-01</leafValues></_></weakClassifiers></_>
    <!-- stage 9 -->
    <_>
      <maxWeakCount>3</maxWeakCount>
      <stageThreshold>-1.3765234947204590e+00</stageThreshold>
      <weakClassifiers>
        <_>
          <internalNodes>
            0 -1 8 2.4434748291969299e-01</internalNodes>
          <leafValues>
            -9.0257877111434937e-01 8.2914572954177856e-01</leafValues></_>
        <_>
          <internalNodes>
            0 -1 29 1.9412466790527105e-03</internalNodes>
          <leafValues>
            -8.2444792985916138e-01 8.1030297279357910e-01</leafValues></_>
        <_>
          <internalNodes>
            0 -1 31 1.2273720931261778e-03</internalNodes>
          <leafValues>
            -9.9186533689498901e-01 3.5050323605537415e-01</leafValues></_></weakClassifiers></_></stages>
  <features>
    <_>
      <rects>
        <_>
          0 6 14 12 -1.</_>
        <_>
          7 6 7 12 2.</_></rects>
      <tilted>0</tilted></_>
    <_>
      <rects>
        <_>
          0 12 10 16 -1.</_>
        <_>
          5 12 5 16 2.</_></rects>
      <tilted>0</tilted></_>
    <_>
      <rects>
        <_>
          0 15 8 22 -1.</_>
        <_>
          4 15 4 22 2.</_></rects>
      <tilted>0</tilted></_>
    <_>
      <rects>
        <_>
          0 27 6 11 -1.</_>
        <_>
          3 27 3 11 2.</_></rects>
      <tilted>0</tilted></_>
    <_>
      <rects>
        <_>
          2 0 25 2 -1.</_>
        <_>
          2 1 25 1 2.</_></rects>
      <tilted>0</tilted></_>
    <_>
      <rects>
        <_>
          3 0 13 2 -1.</_>
        <_>
          3 1 13 1 2.</_></rects>
      <tilted>0</tilted></_>
    <_>
      <rects>
        <_>
          3 3 9 6 -1.</_>
        <_>
          6 3 3 6 2.</_></rects>
      <tilted>0</tilted></_>
    <_>
      <rects>
        <_>
          4 34 21 2 -1.</_>
        <_>
          11 34 7 2 2.</_></rects>
      <tilted>0</tilted></_>
    <_>
      <rects>
        <_>
          6 5 20 15 -1.</_>
        <_>
          16 5 10 15 2.</_></rects>
      <tilted>0</tilted></_>
    <_>
      <rects>
        <_>
          6 6 20 8 -1.</_>
        <_>
          16 6 10 8 2.</_></rects>
      <tilted>0</tilted></_>
    <_>
      <rects>
        <_>
          8 34 11 4 -1.</_>
        <_>
          8 36 11 2 2.</_></rects>
      <tilted>0</tilted></_>
    <_>
      <rects>
        <_>
          9 22 4 18 -1.</_>
        <_>
          9 28 4 6 2.</_></rects>
      <tilted>0</tilted></_>
    <_>
      <rects>
        <_>
          9 37 17 3 -1.</_>
        <_>
          9 38 17 1 2.</_></rects>
      <tilted>0</tilted></_>
    <_>
      <rects>
        <_>
          10 30 2 4 -1.</_>
        <_>
          10 30 1 2 2.</_>
        <_>
          11 32 1 2 2.</_></rects>
      <tilted>0</tilted></_>
    <_>
      <rects>
        <_>
          12 0 6 2 -1.</_>
        <_>
          12 0 3 1 2.</_>
        <_>
          15 1 3 1 2.</_></rects>
      <tilted>0</tilted></_>
    <_>
      <rects>
        <_>
          12 3 6 7 -1.</_>
        <_>
          15 3 3 7 2.</_></rects>
      <tilted>0</tilted></_>
    <_>
      <rects>
        <_>
          12 7 8 20 -1.</_>
        <_>
          12 7 4 10 2.</_>
        <_>
          16 17 4 10 2.</_></rects>
      <tilted>0</tilted></_>
    <_>
      <rects>
        <_>
          12 7 18 11 -1.</_>
        <_>
          21 7 9 11 2.</_></rects>
      <tilted>0</tilted></_>
    <_>
      <rects>
        <_>
          12 25 18 10 -1.</_>
        <_>
          12 25 9 5 2.</_>
        <_>
          21 30 9 5 2.</_></rects>
      <tilted>0</tilted></_>
    <_>
      <rects>
        <_>
          12 37 14 3 -1.</_>
        <_>
          12 38 14 1 2.</_></rects>
      <tilted>0</tilted></_>
    <_>
      <rects>
        <_>
          13 21 9 1 -1.</_>
        <_>
          16 21 3 1 2.</_></rects>
      <tilted>0</tilted></_>
    <_>
      <rects>
        <_>
          18 0 10 28 -1.</_>
        <_>
          18 14 10 14 2.</_></rects>
      <tilted>0</tilted></_>
    <_>
      <rects>
        <_>
          18 23 8 3 -1.</_>
        <_>
          22 23 4 3 2.</_></rects>
      <tilted>0</tilted></_>
    <_>
      <rects>
        <_>
          18 31 2 2 -1.</_>
        <_>
          18 32 2 1 2.</_></rects>
      <tilted>0</tilted></_>
    <_>
      <rects>
        <_>
          19 6 2 25 -1.</_>
        <_>
          20 6 1 25 2.</_></rects>
      <tilted>0</tilted></_>
    <_>
      <rects>
        <_>
          19 32 10 8 -1.</_>
        <_>
          19 36 10 4 2.</_></rects>
      <tilted>0</tilted></_>
    <_>
      <rects>
        <_>
          20 24 2 6 -1.</_>
        <_>
          21 24 1 6 2.</_></rects>
      <tilted>0</tilted></_>
    <_>
      <rects>
        <_>
          22 7 2 2 -1.</_>
        <_>
          22 7 1 1 2.</_>
        <_>
          23 8 1 1 2.</_></rects>
      <tilted>0</tilted></_>
    <_>
      <rects>
        <_>
          22 11 8 24 -1.</_>
        <_>
          26 11 4 24 2.</_></rects>
      <tilted>0</tilted></_>
    <_>
      <rects>
        <_>
          23 28 4 2 -1.</_>
        <_>
          23 28 2 1 2.</_>
        <_>
          25 29 2 1 2.</_></rects>
      <tilted>0</tilted></_>
    <_>
      <rects>
        <_>
          24 34 6 3 -1.</_>
        <_>
          27 34 3 3 2.</_></rects>
      <tilted>0</tilted></_>
    <_>
      <rects>
        <_>
          28 20 2 20 -1.</_>
        <_>
          29 20 1 20 2.</_></rects>
      <tilted>0</tilted></_></features></cascade>
</opencv_storage>
